14 100
, 0.00075585797 1.4601623e-05 0.0022589094 0.0074410494 -0.0008144456 -0.0061557507 0.009658918 0.010912202 -0.009218424 -0.0016847884 0.00863364 -0.0045837387 0.018922506 0.000603079 -0.00061328785 -0.005245447 -0.013398067 0.0047412687 0.0052545946 -0.009397657 -0.019145796 -0.012040091 -0.0026347993 0.01815832 0.012912691 0.006265092 -0.029490488 0.0051340153 -0.010725098 -0.022200907 -0.015488701 0.024262188 -0.005128874 -0.001869464 -0.002184612 -0.0035687983 0.0047888206 -0.009708618 -0.0035764414 -0.0012216604 0.011172581 0.00047206576 0.001292158 0.0021429034 -0.006570901 0.0032525 -0.008946392 -0.0020356379 0.0021345904 0.002760385 0.011139526 -0.007255856 -0.01038393 0.004950326 0.0016880097 -0.007012379 0.0060752407 -0.0043003014 0.0006636103 -0.0020934467 -0.005291196 -0.0076517225 0.0021228285 0.004759294 -0.0038142654 -0.005441898 0.0037925148 0.003947401 0.007449177 -2.058763e-06 -0.0052235355 -0.0026332855 -0.0015981935 0.0014138059 -0.00017661636 -0.0029667069 0.008250784 0.0025326128 -0.009026616 0.0031061675 -0.008575223 0.005729436 0.0018445658 -0.004698734 -0.0046415306 -0.005903546 0.0024313172 -0.002630279 -0.0012083403 -0.0023591844 0.004960488 0.0029265266 -0.004059113 -0.0044864854 -0.00059810403 0.0007657366 -0.0014391688 0.0023795813 -0.0011711492 -0.0025016142
1 0.11962333 -0.057226073 0.13680765 0.067477554 0.01904737 -0.15165164 0.04162921 0.26176754 -0.37671003 -0.16092725 0.14499673 -0.1793165 0.20955162 -0.05481405 -0.004974395 -0.092380956 -0.2234357 0.019535871 0.077478714 -0.04986602 -0.30148765 -0.20734048 -0.075580746 0.3518949 0.05724261 0.0836144 -0.345651 0.039629195 -0.15099554 -0.32863018 -0.14146455 0.28364736 0.23024131 -0.22984703 -0.08844004 -0.077508435 -0.07375555 -0.120645754 -0.033280045 0.19145323 -0.041617267 -0.020657323 0.05602664 0.157528 0.08095235 0.03705085 -0.002760539 0.03171203 0.06766415 0.06826204 0.13082673 -0.15869632 -0.10116275 0.10690562 0.051689576 0.002663414 0.021960746 -0.105128 0.027906466 -0.16612294 -0.07924247 -0.26599357 0.07247866 0.059960674 -0.066994324 -0.2569023 0.13343199 -0.10230056 -0.09385496 -0.16200191 -0.014173171 0.02110452 0.055236965 -0.094870806 -0.0310098 -0.021176072 0.057370946 -0.17967342 -0.31175804 0.15845814 0.260341 -0.23553182 0.02656129 0.22537681 -0.23026197 0.20798445 -0.31221956 -0.10362332 -0.039693225 0.27052015 -0.024301644 -0.07449911 -0.3865325 0.07112975 -0.11656041 0.19982252 -0.2611019 -0.15374649 0.1136353 -0.13984674
2 0.017996963 -0.014787256 0.010391281 0.004713875 -0.00061753765 -0.021470351 -0.0038781292 0.013230972 -0.021960028 -0.005280514 0.0033208353 -0.016629586 0.015482587 -0.011811908 -0.0014985076 -0.002122568 -0.0137600405 -0.002551428 -0.0018219379 0.00030586668 -0.016444208 -0.025718782 -0.013811011 0.031134637 0.0051357225 0.007012047 -0.020559125 -0.004438586 -0.01784389 -0.02298893 -0.006017128 0.029086651 0.015235252 -0.013812641 -0.012945584 -0.014139941 -0.011889396 -0.00061373215 0.0058185016 0.024442034 -0.009561465 4.00664e-05 0.008491133 0.0113573065 0.008325811 0.0074688266 0.005889532 0.010942644 0.012529234 0.009920997 0.009971382 -0.012210721 -0.0008494579 0.000264368 -0.0052755666 0.007359205 0.0053785257 -0.017116504 -0.006595808 -0.016254326 0.005013268 -0.013123243 0.00958704 0.009738275 -0.011070283 -0.015714068 0.007406832 -0.009316828 -0.002140723 -0.021028163 0.007624584 0.0035678514 0.007946789 -0.016261932 -0.01121508 0.002081843 0.012670188 -0.019449783 -0.016804771 0.0056911195 0.025931189 -0.01786605 -0.008025517 0.011162855 -0.01739928 0.007376361 -0.022180265 0.0022806986 0.004729592 0.015549925 -0.009709288 -0.006622335 -0.024267165 0.0031729708 -0.006119982 0.015404011 -0.021300862 -0.00786469 0.016196523 -0.00031124533
4 -0.18668588 0.10515378 -0.21353954 -0.121677466 -0.025865195 0.26089096 -0.080727495 -0.41423798 0.6025247 0.25716045 -0.23430383 0.2864306 -0.35432166 0.09237532 0.0076810885 0.13254741 0.3601263 -0.03178105 -0.12940721 0.08492298 0.48206592 0.3490718 0.12308049 -0.54640216 -0.11113197 -0.13389325 0.54553276 -0.061863147 0.23284301 0.5044986 0.2287623 -0.44643155 -0.35079107 0.36410302 0.13384072 0.122422606 0.110252984 0.19391824 0.049082827 -0.29994166 0.053588465 0.039690405 -0.10248377 -0.24992417 -0.11869658 -0.059331864 0.02017444 -0.05490279 -0.1033165 -0.1012414 -0.20946783 0.23772925 0.16945927 -0.17378412 -0.0987777 -0.005653939 -0.046455294 0.16781272 -0.030381808 0.26026365 0.12130692 0.4255125 -0.109888025 -0.09317021 0.10838307 0.4063076 -0.21491203 0.14977999 0.14048132 0.24235687 0.03900372 -0.026483336 -0.0772185 0.14630832 0.046025563 0.039773412 -0.09620917 0.2990389 0.51523685 -0.24875669 -0.41155428 0.36786833 -0.03811852 -0.34372216 0.38462266 -0.3233689 0.49493137 0.15366495 0.04962627 -0.43318665 0.040068716 0.11611106 0.62075293 -0.104893945 0.1965418 -0.31590915 0.4198226 0.24953172 -0.19277853 0.21881947
3 -0.08188835 0.044365715 -0.08586133 -0.04719327 -0.0022642496 0.11289374 -0.025976013 -0.179074 0.25106585 0.107194915 -0.09488836 0.109820955 -0.14767013 0.038503636 0.010060153 0.057735994 0.15334454 -0.012224246 -0.062118214 0.04262847 0.2033527 0.13664259 0.046078455 -0.23435247 -0.040058635 -0.05319696 0.2320502 -0.02042147 0.10839151 0.21818258 0.09800811 -0.19631103 -0.15329058 0.14690953 0.058349278 0.054466225 0.035995945 0.09162081 0.026666874 -0.1253317 0.017881919 0.013508186 -0.033911895 -0.0921923 -0.044719573 -0.032805547 0.0040604756 -0.013594961 -0.046408195 -0.04859073 -0.08750496 0.106244385 0.074740484 -0.06978145 -0.031028714 0.0070207273 -0.02381734 0.07271672 -0.024238294 0.11609297 0.05672556 0.17569382 -0.051792134 -0.03638115 0.055225115 0.17241132 -0.09302944 0.05548653 0.053139903 0.105869494 0.00892183 -0.01332984 -0.039206777 0.065750696 0.014091976 0.008807325 -0.04883191 0.10941248 0.21396452 -0.101375364 -0.17625898 0.15092954 -0.018952098 -0.13874461 0.15296203 -0.1349397 0.20579389 0.06491962 0.020004703 -0.16680343 0.021117324 0.05077222 0.26427445 -0.04473903 0.08599787 -0.120255485 0.1725074 0.092774935 -0.08549372 0.084735535
5 0.14014652 -0.06330898 0.15061899 0.08032029 0.020738661 -0.17399494 0.04505113 0.28739622 -0.42734742 -0.16776603 0.16263135 -0.1904556 0.23845862 -0.06548411 -0.006696469 -0.09277432 -0.26132694 0.0074606254 0.102261715 -0.06272906 -0.33944875 -0.2396056 -0.08153374 0.38251635 0.07652302 0.106535375 -0.37942484 0.03787777 -0.17638366 -0.36667058 -0.16185698 0.32551825 0.24473664 -0.25080806 -0.08886525 -0.076138854 -0.082231544 -0.14357112 -0.04465523 0.22382633 -0.04218983 -0.031748414 0.0643849 0.17640589 0.090908155 0.036632195 -0.01436748 0.02944616 0.07309847 0.08161379 0.13893987 -0.18200983 -0.12710197 0.12259765 0.07276969 0.0022029555 0.03616015 -0.11784333 0.023424141 -0.18509807 -0.09801932 -0.30418673 0.085192576 0.055224355 -0.07542744 -0.2817059 0.14527865 -0.115302056 -0.1043868 -0.1664054 -0.021311278 0.025784567 0.065271795 -0.109175876 -0.035565984 -0.023875156 0.072629556 -0.21253082 -0.3633964 0.16740465 0.29835778 -0.25405648 0.0319288 0.25949088 -0.25804928 0.22792195 -0.3587855 -0.103252634 -0.049237557 0.30815828 -0.030481072 -0.08798145 -0.4470903 0.07949477 -0.14175761 0.22233583 -0.30455348 -0.17617458 0.12981701 -0.1590731
6 -0.065525025 0.03643767 -0.07209816 -0.05396046 -0.014883162 0.10322371 -0.024970392 -0.16422997 0.23537019 0.098877005 -0.08953565 0.11528332 -0.14576188 0.024679312 -0.0039055278 0.062565275 0.14086276 -0.011831425 -0.05275058 0.03689169 0.19227487 0.1413722 0.049603976 -0.21773396 -0.0386584 -0.04834016 0.20495212 -0.023522275 0.09561954 0.20812112 0.08053282 -0.18631795 -0.14312427 0.14185214 0.05785382 0.050746463 0.04724763 0.0815114 0.019661326 -0.118441805 0.016419431 0.021714887 -0.03392565 -0.10066475 -0.039026204 -0.027653921 0.014127497 -0.028666748 -0.042381834 -0.049137272 -0.073141396 0.10215878 0.060843978 -0.06605056 -0.03338685 -0.0037321427 -0.018956637 0.06764197 -0.005858933 0.10001467 0.050358575 0.17092893 -0.05395867 -0.042433307 0.03884585 0.16238503 -0.09276257 0.064225815 0.05396975 0.10512472 0.0043030316 -0.009406214 -0.0352668 0.05258804 0.019357251 0.013249214 -0.039845422 0.10492858 0.19054763 -0.096882224 -0.15328957 0.1489812 -0.014514013 -0.14111921 0.15138152 -0.12928312 0.1987425 0.061304566 0.031864233 -0.16351433 0.013113202 0.042281594 0.23470154 -0.04218424 0.07126679 -0.1273283 0.16075875 0.09071346 -0.06583309 0.07528213
7 0.092763275 -0.055433862 0.10148157 0.057576135 0.020615218 -0.13801137 0.036334075 0.22236827 -0.3202687 -0.14239526 0.12821229 -0.15766421 0.186355 -0.039458383 0.0060702837 -0.07513899 -0.20047186 0.012973094 0.07501497 -0.03814379 -0.2538429 -0.18895406 -0.0742154 0.2985468 0.050878786 0.07061982 -0.2940483 0.03904423 -0.13305576 -0.27254897 -0.1192264 0.2509495 0.19975162 -0.18662193 -0.080383 -0.05780558 -0.04939926 -0.11507519 -0.019678736 0.16676278 -0.021955466 -0.018074347 0.052203722 0.1375307 0.067644715 0.035241596 -0.0009729723 0.037256233 0.06590584 0.06591238 0.10377251 -0.13306175 -0.08397976 0.09698659 0.05465425 -0.0019745908 0.026468223 -0.08823787 0.02317267 -0.14625865 -0.069394484 -0.23647837 0.067859136 0.03591988 -0.067314565 -0.22276013 0.120120294 -0.08504749 -0.08364164 -0.13639177 -0.020685984 0.020319792 0.033536155 -0.07447167 -0.01625316 -0.007865989 0.0468339 -0.14892846 -0.27613991 0.12673134 0.2177605 -0.19867079 0.029697092 0.19545057 -0.19758734 0.18112011 -0.26302728 -0.07390236 -0.029603617 0.21985374 -0.01230639 -0.06795288 -0.33846572 0.053471997 -0.116743125 0.16068184 -0.22553128 -0.14184265 0.109303825 -0.11717228
8 0.02303998 -0.014789993 0.026909772 0.007773446 0.008578489 -0.032622118 0.0050801663 0.039864358 -0.06183607 -0.026485315 0.012358518 -0.027172575 0.026780771 0.0012904603 0.004669138 -0.019188905 -0.03228458 0.0070435526 0.020919703 -0.007931822 -0.0521867 -0.035074066 -0.008535383 0.045177523 0.00937963 0.010147688 -0.04033612 -0.0025801957 -0.012627606 -0.042150214 -0.017727006 0.051555205 0.03921117 -0.035590217 -0.018631099 -0.00908803 -0.0010210827 -0.014199906 -0.0032815419 0.03818449 -0.013052812 -0.014737761 0.018455679 0.029829135 0.018417036 -0.0025782485 0.0017632812 0.010698461 0.0074887443 0.01862863 0.015840733 -0.018014027 -0.021193568 0.02168852 0.0070716958 0.0070193317 0.00391049 -0.024713133 -0.0018912808 -0.018468287 -0.013798705 -0.037602436 0.014996626 0.017198905 -0.012757531 -0.043318275 0.029596478 -0.018644014 -0.017413309 -0.02612147 0.0017360752 -0.0068164724 0.009572315 -0.0042563104 0.0050064395 0.0047667245 0.00239564 -0.021166647 -0.03864212 0.032484762 0.035664424 -0.036015674 0.00083363923 0.024770392 -0.025057103 0.03652741 -0.03953685 -0.011495799 -0.0045057707 0.039926782 -0.0055347118 -0.016028339 -0.047881886 0.016590096 -0.02257376 0.026564464 -0.039068446 -0.012727694 0.024600608 -0.022084016
9 0.019572929 -0.015171026 0.031076653 0.024849588 0.00062175514 -0.02969271 0.015695937 0.06066941 -0.090508655 -0.043924753 0.026933864 -0.044749368 0.05648561 -0.023315277 -0.0070725745 -0.02576633 -0.055494286 -0.007007122 0.021635279 -0.014942206 -0.072275914 -0.053127423 -0.016062673 0.07495998 0.0065940875 0.020803398 -0.06988347 0.0022484781 -0.027290141 -0.0795697 -0.028166307 0.057221375 0.055538546 -0.055240244 -0.02184752 -0.018703923 -0.020142516 -0.019079665 -0.0068230303 0.043692578 -0.0036791493 -0.0006532134 0.011015882 0.038346697 0.015048879 0.008512539 0.0017389613 0.0060277567 0.015837014 0.012331133 0.029471476 -0.043637473 -0.021298204 0.020397842 0.019246021 0.004159644 0.01074721 -0.014804971 0.013716419 -0.03092151 -0.02204781 -0.05832839 0.014238784 0.016065221 -0.019184524 -0.06258638 0.028380217 -0.012133386 -0.022898026 -0.02960597 0.0005336237 -0.0018743791 0.012804652 -0.013343588 -0.0060817017 0.0017638267 0.00983378 -0.03907206 -0.062816024 0.03229731 0.06501605 -0.056089655 0.010060725 0.039349377 -0.05743586 0.04619742 -0.076734126 -0.015549952 -0.008645117 0.056407962 -0.0037795603 -0.008823512 -0.07651074 0.010391716 -0.036843404 0.04094644 -0.06545343 -0.03390956 0.022201149 -0.03879519
0 -0.043141205 0.027216576 -0.061541945 -0.02313015 0.001409975 0.067972794 -0.021379987 -0.110837564 0.15750106 0.0637324 -0.052152388 0.07457613 -0.09211726 0.02370648 -0.0009810723 0.033623826 0.0964413 -0.013455936 -0.027378483 0.028745817 0.1281348 0.08785236 0.041489337 -0.15425532 -0.03226115 -0.044157356 0.15115742 -0.018629093 0.06102679 0.1367753 0.06933336 -0.12737922 -0.09251859 0.09155611 0.04329684 0.02205931 0.029100025 0.051817212 0.01218613 -0.08950953 0.0090356255 0.008356511 -0.035227403 -0.067597486 -0.024860593 -0.0045487746 0.00025837222 -0.008642115 -0.034350988 -0.028334655 -0.06139684 0.059293628 0.051136363 -0.045338333 -0.022088937 -0.007566465 -0.0102191735 0.05229715 -0.0028897964 0.06912155 0.040458687 0.1164774 -0.02667029 -0.01607362 0.026407173 0.11554704 -0.051193886 0.041416254 0.032493297 0.0735472 0.0175717 0.0010411277 -0.014262093 0.030178707 0.009590318 0.0066350508 -0.026462559 0.083329424 0.13738142 -0.06802196 -0.110149756 0.10070741 -0.016559802 -0.09339392 0.10711128 -0.09019769 0.12521258 0.0380452 0.008568544 -0.11323341 0.00444968 0.034847777 0.16771404 -0.03600852 0.042873677 -0.08961147 0.11556332 0.060751293 -0.055095308 0.061192818
</s> 0.024994582 -0.0021166324 0.013160129 0.019182846 -0.0018266641 -0.016464213 0.016566586 0.037187412 -0.06051653 -0.026839301 0.013273022 -0.023008224 0.037795965 -0.008551735 0.0060629444 -0.01297733 -0.031875383 -0.005567735 0.012338906 -0.00501211 -0.03845063 -0.02392559 -0.009920403 0.054585885 0.0023484922 0.018166874 -0.05133545 0.0102622835 -0.031045968 -0.041285668 -0.015588128 0.04858829 0.028983139 -0.04134171 -0.010702421 -0.009688278 -0.009470991 -0.02004046 -0.005125604 0.028690772 -0.0011146847 0.0011596243 0.015710872 0.029813765 0.015118478 0.006268179 -0.00212632 0.0063041123 0.0024697075 0.017160125 0.011127831 -0.021140723 -0.010741152 0.0064695943 0.017418498 0.004487926 0.006536138 -0.018040838 0.009770158 -0.03270727 -0.0052939015 -0.034737576 0.017299723 0.01579407 -0.0019521673 -0.039686926 0.01550435 -0.009288227 -0.01960408 -0.019627433 -0.0076332497 0.003174907 0.015893895 -0.0075464593 -0.01035091 0.0004032413 0.0066375844 -0.027934043 -0.03699058 0.012383672 0.042785533 -0.027915778 -0.0024725136 0.036264986 -0.026573507 0.03375176 -0.034186088 -0.011213908 -0.0034674858 0.027565878 -0.006106578 -0.0019030332 -0.054292582 0.019125646 -0.012247501 0.02657801 -0.04555996 -0.023899369 0.0073963557 -0.024895797
[ 0.018272066 -0.015419177 0.011115748 0.005012596 0.01101629 -0.021848505 -0.0025143907 0.032857466 -0.04883813 -0.025449524 0.01814924 -0.015560939 0.04037334 0.000132521 0.003152949 -0.013340797 -0.033010323 -0.001244365 0.019655893 -0.011769816 -0.033113595 -0.030499171 -0.006293559 0.050190564 0.0060475394 0.0049295225 -0.041097715 0.013682425 -0.01352844 -0.049457207 -0.017961832 0.043012552 0.03804379 -0.02934815 -0.020929856 -0.0066237114 -0.00080456026 -0.023959268 -0.011185662 0.025128763 0.0014030269 -0.0091779865 0.017987473 0.013961302 0.017848931 -0.0029632475 -0.0017617107 0.013272222 0.011506209 0.010676017 0.022443047 -0.031182874 -0.01566393 0.009203635 0.0052190106 -0.0056434167 -0.0035814503 -0.018210307 -0.00473117 -0.027244553 -0.008009962 -0.030907365 0.014950637 0.0065541626 -0.018193157 -0.028367918 0.010343325 -0.013754635 -0.007662334 -0.027083145 0.0017310164 0.008933036 0.0126918405 -0.017274747 -0.0056715207 -0.01084946 0.011952493 -0.016378786 -0.0437409 0.028510554 0.037371837 -0.0302504 0.0066910544 0.026094183 -0.027324032 0.029138662 -0.04243676 -0.015189306 -0.010207858 0.03810839 -0.002002199 -0.019761875 -0.055755027 0.0009142257 -0.021010565 0.020602185 -0.031557634 -0.03078808 0.016579743 -0.026343424
] 0.019984577 -0.012113588 0.023650208 0.017546304 -0.0031706346 -0.016394664 0.010112178 0.030522304 -0.044563986 -0.019690191 0.022796094 -0.019647775 0.021959495 -0.002689754 -0.0027986292 -0.0060730632 -0.026741913 0.010361316 0.0023655274 -0.010363684 -0.04466533 -0.034471095 -0.015759366 0.049577635 0.014519179 0.015938496 -0.039372493 0.010415227 -0.014553229 -0.043516893 -0.013554576 0.04036265 0.028518673 -0.036392238 -0.0039370866 -0.0029783424 -0.01773188 -0.02628383 0.00013949368 0.023353374 0.0039624935 -0.0020966097 0.007827651 0.026275644 0.016557973 -0.00065770495 -0.010131061 0.00592631 0.013578829 0.0059387335 0.01712753 -0.014075494 -0.023491668 0.018573247 -0.0010605699 -0.0024426288 -0.0030976932 -0.010355285 -0.0070710797 -0.018277673 -0.020090543 -0.042253498 0.012541136 0.017328786 -0.012322367 -0.041034132 0.014287385 -0.012824954 -0.007541581 -0.024548274 -0.011780755 0.008519136 0.011388936 -0.013255117 -0.009199099 -0.010357853 0.016959125 -0.034560945 -0.051286872 0.019463114 0.04146383 -0.027483156 -0.0040252553 0.0375688 -0.03490687 0.035235945 -0.03565044 -0.02063353 -0.0080245165 0.042351775 -0.010256214 -0.005655079 -0.0491146 0.0031315584 -0.019613171 0.028715737 -0.038920905 -0.023799248 0.02634148 -0.021999681
